AAstate	compensationAbility	FI_mean	FI_std	bufferingAbility	segment	position
106D	0.0	-1.451697349	0.025353040556066013	-1.74040856796718	1	106
106K	0.004554092265942888	-0.35235757799999995	0.01668067120529317	-0.27835953419045034	1	106
106N	0.0	-1.3803695459999998	0.01862117310233068	-1.5959435995397944	1	106
131S	0.003443724408033664	-3.366816130000001	0.03457819398438992	-1.7216389021455916	1	131
135F	0.014010517171603974	-1.2474425770000002	0.01450519077140599	-1.2575767857253122	1	135
108I	0.0024015237115263405	-1.0724531326	0.019159077367544512	-1.4152310298933668	1	108
108M	0.0	-1.267524816	0.015304316641561072	-1.4432894661155222	1	108
108V	0.0	-1.2810117600000002	0.016044624715602404	-1.5384743851301563	1	108
110D	1.5335810309219422	1.6057977380000001	0.0313162505234623	1.3773958001601898	1	110
110E	0.8503777713392829	1.0922892990000002	0.026471281436198528	1.1144588819596308	1	110
110H	0.010418733427950144	0.06825811700000001	0.028242264125330336	0.1469019121797044	1	110
110K	0.007386727971326623	-0.168944963	0.01860357059302384	-0.6160464767016485	1	110
110N	0.4825215398657469	0.902990554	0.029616702999841562	1.1917519574655624	1	110
110P	0.8486759988722696	1.2284449680000002	0.02619462310899583	1.3012853682780041	1	110
110Q	0.01162558468654821	0.216084025	0.016110388647644257	-0.013398358204844876	1	110
110T	0.19737265041113344	0.5658383639	0.02592129206331373	1.1229088903602158	1	110
111F	0.008712430013602031	-0.85867951	0.018349027121238343	-0.4313100590011836	1	111
111I	0.007364624972652109	-0.15654477400000005	0.01800356192512815	-0.4612300323715428	1	111
112K	0.01192655674522804	-0.07117525420000001	0.016713257557172453	0.25384495830541803	1	112
112T	0.014986556323295082	-0.0645731646	0.02525791964366785	0.28716154876801936	1	112
114I	0.4260304576346095	0.7568320780000001	0.02219066129297853	1.1500481431967131	1	114
114L	0.16978472484293	0.33413765669999995	0.02291411983788236	0.2857299738179113	1	114
115A	0.002271483051721189	-1.7968807579000003	0.031911906659067464	-1.797025689221732	1	115
115E	0.0026023264879956962	-3.6385436	0.036235322625554116	-1.573187694626086	1	115
115T	0.0	-1.996449975	0.035198819329703236	-1.8168383928325336	1	115
137D	0.02327742578005122	-0.2922613483	0.018047407505840662	-0.3758847393233104	2	137
137G	3.6681053080785344	1.6429348247	0.02344681433368968	1.6671434681067083	2	137
137S	0.015840968856503487	-0.7537590473000001	0.023817415423943663	-1.2521290874314293	2	137
157S	0.4225732452113909	0.4924337153600001	0.021761210305105208	0.7140615075998155	2	157
157T	0.0674936551464889	0.09053747446	0.020082166469020408	-0.06990399817499555	2	157
160V	0.12348252812186372	0.02800691132	0.016559355951608394	0.1236384047433866	2	160
161T	0.3241268285712544	-0.025839457914	0.017024459015994014	-0.21305134909579584	2	161
163I	0.014098979835859046	-8.207915830000001	0.4201456728039861	-1.4093642163804383	2	163
163L	0.01628233752074203	-5.975600012	0.4031326474568696	-1.9641607919173785	2	163
163V	0.014253555390988819	-8.00368677	0.4159945250772089	-1.4389312294490726	2	163
139A	0.021520935417259482	-0.864499468	0.01974841392369112	-1.1227483993384535	2	139
140F	0.02027694264143836	-0.30978781285900003	0.02389253007927931	-0.6852893317826064	2	140
141C	1.4744861386640276	0.893599811	0.0188639607661209	1.1016498176671532	2	141
141G	0.017359122034838297	-1.922144069	0.02078737034293445	-1.3471856858911682	2	141
141S	0.04077690930384653	-0.5079556135100001	0.008932171777230269	-1.1124981865253902	2	141
142F	0.058755591320618174	-0.221866582344	0.01251495484765805	-0.4063841134318402	2	142
143A	0.016419821776520502	-2.79751403	0.05515192177554725	-1.4324672820654134	2	143
143I	0.11230481460504824	-0.033549599999999964	0.024142573983981088	-0.0011758942886775827	2	143
143T	0.021397278242748573	-2.74056795	0.05301965728974956	-1.377711688545116	2	143
144D	1.2153942131982824	0.7589918233	0.019428354572593343	1.2287646047113956	2	144
144K	0.067216910458453	-0.296102819	0.023153238067735792	0.2564682014235639	2	144
144N	3.5229850030420065	1.5345456240000002	0.02718896886191542	1.515877637914346	2	144
145I	0.004391508892097498	-1.284870195	0.02963494574624333	-1.5713969502843872	3	145
164I	0.0	-1.594995599	0.028409973763153483	-1.773382559007605	3	164
164M	0.0014366090303190278	-1.722556184	0.020228674245393014	-1.7954555282960636	3	164
165D	0.006235602861665443	-1.8872461920000003	0.03307921142246017	-1.5619628710827054	3	165
165H	0.02751485330340546	-0.03688149400000002	0.008444129563325296	-0.2659386252613621	3	165
165Q	0.04220322071166605	0.022944606999999995	0.0186299332711795	0.14421195727623118	3	165
168S	0.0040906498907206925	-2.123588754	0.026574909136825788	-1.7480743736842703	3	168
169G	0.01281611283744429	-1.519628415752	0.03237059002732938	-1.1706488232382506	3	169
169Q	1.3740256196204612	1.325175024248	0.022850768330269697	1.979516357280647	3	169
169R	1.7490224851059124	1.673770594248	0.03061481487300268	2.160413463380651	3	169
170G	0.5681995263167489	0.981035835	0.019430575721437717	2.169827933797264	3	170
170S	0.0016726257170815262	-1.0124639316999997	0.028118090461416324	-1.3429320664172602	3	170
170T	0.0009643740237020182	-2.858455635	0.04450354969998157	-1.4652951175792202	3	170
147F	0.275186749497287	-0.35068656760000005	0.02020194463461057	0.381557882961536	3	147
148K	0.008309474299495523	-0.4106830943000001	0.019029815026381208	-0.8212739361411614	3	148
148R	0.007877879116416405	-0.7852732109999999	0.01364884220849258	-1.1080833696960126	3	148
151M	0.16604573434866773	-0.4191553109000001	0.018770752825486483	0.1937448387751093	3	151
152I	0.0838770049949039	0.2282840882	0.019575507458623576	-0.5487571680193044	3	152
154E	0.007222837219687409	-1.1901534061	0.020661369607019604	-1.5342274846748198	3	154
154H	0.003986291970262853	-1.9971488280000005	0.031169454342686795	-1.5883758150531493	3	154
154Q	0.006903077045256997	-1.531087199	0.02102602535751284	-1.7376848612548488	3	154
171A	0.6464720044051455	1.236126345	0.03647185368991032	2.8024299187754056	4	171
172A	0.0	-0.9310801887	0.02962248363672968	-2.337370454745937	4	172
172G	0.0	-0.322183034	0.02215675027659573	-3.1540701692489006	4	172
172S	0.0	-0.8688043888999999	0.032495837927205784	-2.5814908693517284	4	172
172T	0.0	-2.030608398	0.05304181410865974	-2.225204798601692	4	172
195S	0.0	-2.029203283	0.06322626701809335	-2.946277465837733	4	195
196F	0.0	-1.696894923	0.057053593885009475	-2.7352002091418552	4	196
198I	0.21745983654403736	0.7591072622	0.033499816522829726	2.55615827146122	4	198
198L	0.2543362869940244	0.8222487772000001	0.027723194989129358	2.6663240221585442	4	198
200L	0.14951328747357606	0.6889214000000001	0.02773121537019247	2.9109758525519878	4	200
200M	0.0	-0.5219562289999999	0.020975057513928537	-2.5250430524221907	4	200
200P	0.0	-8.302186449999999	1.6994936588817868	NAN	4	200
200T	0.0	-3.68523719	0.11880859329634748	-2.1868153991289496	4	200
173V	0.0	-1.090634644	0.03971320727231136	-3.0500022462106093	4	173
175I	0.0033069227313653514	-0.0500331654	0.017405805502940744	-1.8529385175143884	4	175
175M	0.007614250612671381	0.14453337940000002	0.0185840707814012	1.0771124829303844	4	175
177I	0.011041298084051188	0.1024400576	0.011551770377431093	1.4850322164101741	4	177
178G	0.0	-2.346019991	0.0754165981606554	-2.8819426012656635	4	178
178N	0.0	-1.022386712	0.033518014695565354	-2.964455672798169	4	178
178S	0.0	-0.7589127929300001	0.03268609669799297	-2.7833617045736223	4	178
180I	0.0	-0.39126813	0.030947481626155286	-2.281025211073437	4	180
180P	0.0	-3.74300814	0.12196637160291544	-2.2929019938962174	4	180
180T	0.0	-2.128850749	0.07311975663022288	-2.9666414624486586	4	180
181C	0.003665534396820389	-2.7392175260000005	0.03283731363054067	-1.916049706935106	5	181
181H	0.0022744818560941123	-2.374636251	0.025686988198521152	-1.844675781448104	5	181
181Y	0.0025849322995666977	-1.004500852	0.03540097189200488	-0.5234774117594413	5	181
201K	0.015112496974866718	0.11953059799	0.021077465257010475	0.09309346050518302	5	201
202A	0.003279945462764932	-2.314803835	0.027148307309702118	-1.753959918483941	5	202
203S	0.009337475041749052	-1.995300147	0.02903219213464048	-1.7458583994160852	5	203
204I	0.007680698549719566	-0.14314211332000001	0.015360674100635003	0.03784151214183629	5	204
205T	0.0038532997523712227	-0.03454443694	0.014364775982999982	-0.3030352765610224	5	205
206L	0.012420626073916115	-1.694950511	0.018391625489501115	-1.3988179090798685	5	206
206S	0.009652521420807454	-0.9332626420100001	0.02327574908871876	-0.3645204312554654	5	206
207T	0.15367324169430588	0.749482056	0.02028257311007664	0.7744895143027015	5	207
208E	0.002556976588450685	-0.5365560733000001	0.03302856694234837	-0.7249138541368624	5	208
209K	0.007041383680541253	-0.984285221	0.020765189596386315	-0.9060877542089909	5	209
210D	0.03232290431075887	0.5022737133699999	0.02378382041100848	0.6052130676449919	5	210
183N	0.009130192508166338	-0.2126708389	0.02568889619506755	0.13608354703260894	5	183
183T	0.033959457077383154	0.4358337828	0.028413636413554245	0.9500476240512852	5	183
211E	0.004338607833564767	-0.2856725477	0.01815332956231851	-0.5148822810071357	5	211
189A	0.8902093651626206	1.95399946	0.02497882073819526	1.7033015358953674	5	189
96S	0.010271511111208187	-2.9378819700000003	0.07417057480776383	-1.9494997684936468	6	96
96T	0.02159888845892909	-0.50898706	0.01971972151356102	-1.3333796950354069	6	96
97A	0.6449626988799263	0.7453273465999999	0.03187450649336032	2.179233030468391	6	97
117Y	0.017656846892796244	-0.45394669376	0.018428845110196896	-1.6375509362477878	6	117
119H	0.04631838701096153	0.14027766000000005	0.012325926645587366	0.34882111736509713	6	119
119P	0.0	-6.005369600000001	0.17529414533542753	-0.6897774281824641	6	119
119Y	0.27875182108083185	0.55222154	0.01535249091647342	1.9414825916633776	6	119
120A	0.6118226177948625	0.6535979536000001	0.02248737918821516	2.1036962154416794	6	120
121Y	0.08799825536515596	0.19894464910000004	0.013997202969308646	0.34728574113950866	6	121
122C	0.005184480968958797	-0.8046687839999999	0.02649170612969889	-2.344618785838142	6	122
98L	0.0297666275743682	-0.3981457857	0.021342765560408133	-0.6635812403858629	6	98
99S	0.013957870172133218	-2.2960240910000005	0.06588266415251688	-2.1943598618694238	6	99
99T	0.015328989926109109	-1.4058307958999998	0.04447685388534985	-2.792341844533816	6	99
102K	0.00860091427427849	-0.50308924562	0.01916638356966233	-1.6988826001825783	6	102
102L	0.11596028947667908	0.09426472088	0.01966939055655423	0.256138828273853	6	102
102M	0.1205918935393411	0.16301239137999995	0.0160746474948517	0.9007144282517842	6	102
104L	0.004283480818090649	-2.4244190860000003	0.06771733822039795	-1.8727159721303632	6	104
105H	0.03846625432134124	-0.6820021008999999	0.022003912954874683	-1.6792982216054917	6	105
105N	0.03601056903519678	-0.942810268	0.02391976024829964	-2.150332494869636	6	105
105Q	0.019091586221790902	-1.217374737	0.03329869782289334	-2.3305255496748654	6	105
66F	0.0	-2.7693884310000003	0.16821968319714234	-1.681637621416887	7	66
66H	0.0	-4.979091970000002	0.288930028945096	-0.9359593279123584	7	66
66L	0.0	0.03515261999999995	0.0616142901576542	-1.908716135209935	7	66
66N	0.0	-5.29208276	0.2978886859384565	-0.8117366141974334	7	66
66Y	0.0	-5.01258608	0.2840625071407095	-0.8401075454425875	7	66
67N	0.005303885495233019	-0.6862355	0.03904717317466139	-1.7298269252327385	7	67
67P	0.0	-8.291440329999997	0.4272175822997668	-0.8776137689170465	7	67
67T	0.04423950742363466	0.18883519000000007	0.015046312290754156	1.2103285368396004	7	67
86D	0.017668347688005015	0.20283390499999995	0.014916040317095038	-0.06498265979333652	7	86
86F	0.008196551323883984	-0.8338327400000001	0.04816545973731964	-1.5736053388212732	7	86
86L	0.008266178797148176	-0.8644450460000002	0.051342211381462735	-1.4600731861166196	7	86
86V	0.008223095673871507	-0.7648330760000001	0.03373688273625742	-1.6161114417192322	7	86
86Y	0.00822479458588825	-0.52759460724	0.03249042852888042	-1.3913127539563428	7	86
87V	0.02938598406827724	0.35708113249999995	0.01825075895329109	1.508413224160745	7	87
92S	0.002667299087168089	-1.5735714770000002	0.08183416946545805	-2.071848199237321	7	92
93A	0.11503542084055315	0.4536903364	0.0302285346165261	0.997088998603672	7	93
93I	0.9812460816828896	0.7470242384000001	0.045851417835631014	1.7213608625252377	7	93
93L	0.0	-1.0183305786	0.048338393164828006	-1.8450716456490632	7	93
93S	0.0	-0.7273134336	0.027946143309919888	-2.0000647838456858	7	93
93V	2.965132065768893	1.4825705784	0.08400298032592435	1.697248386428173	7	93
73A	3.3106191417175017	1.489340631	0.08297578403942346	1.9794249188281332	7	73
73C	0.0	0.11311804909999998	0.016450191328807692	1.0196175803987413	7	73
73G	0.0	-0.979297319	0.04901713264541112	-2.0148452988645844	7	73
56D	0.04020647797442917	-0.08643715050999999	0.01611967722624081	-0.5763548044574729	8	56
56E	0.00881337253075012	-0.72332192979	0.02759951712643984	-1.6254300207768908	8	56
56Q	0.0	-0.08584112139000001	0.01542993652295624	-1.40105341985657	8	56
76N	0.0034340358835968183	-4.833990730000001	0.12631148724568994	-0.8281850484599215	8	76
77I	0.0	-1.3555370590000002	0.03664783087992128	-1.5827813707151417	8	77
78G	0.0	-3.38986711	0.08303907862314526	-1.7172081527659304	8	78
78L	0.0	-0.7214939	0.014454539048096968	-1.9009299235331687	8	78
78R	0.0061322215669079826	-1.865775138	0.04683869756280372	-1.6664026945601869	8	78
78V	0.0	-0.738482822	0.023323819225939287	-1.7827476102113864	8	78
79L	0.7190594547653104	0.6217898027000001	0.02121081203736686	1.6168174913151538	8	79
80Y	0.006962601910696809	-1.011802136	0.025390254670511755	-1.534869794386064	8	80
81A	0.014454711628420453	-0.5546647389999999	0.023614891023603927	-1.6692069482117955	8	81
81G	0.0	-2.51677921	0.07031693284311674	-1.8415693996855145	8	81
81S	0.0	-1.6647167669999998	0.04723868096478205	-1.7777464085404011	8	81
82G	0.0	-0.8273652944000001	0.02496660985684741	-1.1973579523605329	8	82
82R	0.4387925348031689	0.3610978106	0.02192693415754999	1.2192602115206863	8	82
82V	0.019850486977125832	0.1473977027	0.014955208121520245	0.979302690490006	8	82
85I	0.003746340301945358	-0.33479824405	0.012786857597731464	-1.6377285026349122	8	85
59V	0.0	-0.939656655	0.02504975725205268	-1.6373872157836369	8	59
60A	0.017711543975303518	-0.09988377494	0.014927138966059112	-0.8579521252319003	8	60
62F	0.0	-3.37767676	0.07543991467712839	-1.136904643375769	8	62
13H	0.004593486373147189	-0.7874083345	0.02752937004206146	-2.8292126234871886	11	13
13K	0.4074503549579428	0.17075323050000002	0.018900911568217348	-2.303900806071631	11	13
13Q	0.0215198176620918	-0.4239778975	0.016636582672855803	-3.130108466092245	11	13
25E	0.0	-4.78161388	0.0937343674672509	-1.1576333787843225	11	25
25K	0.006761446163471732	-3.79463859	0.07350391434826385	-1.1485646015476236	11	25
25R	0.0	-4.354202589999999	0.08622137803641786	-1.3303387133065472	11	25
26A	0.0	-2.30450875	0.043251006638927	-2.105314826300172	11	26
26D	0.002443153263591789	-1.714161414	0.03032833861176553	-2.234100236078256	11	26
27A	0.07355070222275753	-1.075849284	0.03394010388478004	-1.9604503314605293	11	27
27D	0.055380261221711656	-1.256683609	0.039923351786477636	-1.5328507293777232	11	27
27H	0.036517933145996766	-0.807419062352	0.033932245467058565	-2.1290573570886684	11	27
28I	0.5064730476820696	-0.24917642399999998	0.017956881669386932	-0.726165996840298	11	28
28V	0.16401783883365545	-0.5573311375000001	0.016321255959384568	-0.392393773424889	11	28
29E	0.1960175030354084	-0.15460984760000002	0.025402435248687613	-0.3924159563432555	11	29
29P	0.3005822305081239	-0.61591559	0.032443901826300414	-2.3016052439342145	11	29
29Q	0.13288144744472716	-0.16801681960999998	0.019180285231795158	-0.8910317241431475	11	29
16H	0.021042364377872103	-0.5525668045000001	0.022155084532781373	-3.007108415856642	11	16
16N	0.4337840290032209	0.16684998220000002	0.0252215244744272	0.25564415913834315	11	16
16Q	0.5325483499921753	0.22913905110000005	0.01964776258187036	2.07309887541158	11	16
18C	0.0	-1.7008868700000002	0.031133823009155907	-3.1360052285770683	11	18
18F	0.007350389555494894	-2.081567043	0.03639060869671951	-2.6044587378921	11	18
18S	0.009360405255324259	-1.5684262869999999	0.03321130330650991	-3.062663745268668	11	18
19D	0.0	-13.596257970000002	0.8071903729551784	NAN	12	19
19N	0.0	-12.92560847	1.0206490441625953	NAN	12	19
19V	0.04197772331935739	0.3494802300000001	0.012350524520768314	1.022541880242776	12	19
20S	0.0035863946529105218	-1.053413975	0.02990963277203561	-1.7061299832558263	12	20
21L	0.1053149999263117	0.28432707989999995	0.02581653565176936	1.3141097864360842	12	21
22A	0.002548994202027657	-0.299114227	0.01825900456711815	-0.7690490439291039	12	22
22C	0.004401767249168014	-0.6938959519999999	0.03867452462442812	-1.1145425973252676	12	22
22G	0.0019183231491340664	-1.614010576	0.026783579780809075	-1.6760007289822012	12	22
23I	0.002674040951642497	-0.6640362173800001	0.0271366982655302	-1.7809380087907896	12	23
24D	0.002148943882214949	-0.7097858775	0.034985322102564866	-1.2930114775695958	12	24
24E	0.0	-0.9165219484999999	0.034143813709655094	-1.4839369760106962	12	24
24N	0.02583219869726384	0.2867518585	0.024729236830705468	1.2687540025877295	12	24
7F	0.026197605257608832	0.184134959	0.02112800803603948	0.5232017367393967	12	7
7S	0.02227967873011244	-0.20398238380000008	0.018011560323452074	-0.04150821680986095	12	7
8F	0.002243250016969392	-0.706744915	0.01277606223977422	-1.518057884366416	12	8
8I	0.0073042724399023954	0.017707777000000004	0.01270666894588038	0.1360784820693281	12	8
9N	0.002539806527622588	-0.5075804822000001	0.0177820238438984	-1.1448229674266526	12	9
9R	0.0	0.1200272662	0.029998377326964133	0.10920158145392374	12	9
9S	0.002716255288039248	-0.2097529231	0.017870043792802968	-0.2602305963762161	12	9
11D	0.003885449808876776	-0.5066566427	0.017973251355378358	-1.3580268517198737	12	11
11N	0.002451280781550652	-0.3194050307	0.02507863241783054	-0.7204515864543307	12	11
11V	0.009572725188270141	0.1464191773	0.028530054268009	0.30314088848950466	12	11
